digraph Tree {
node [shape=box, style="filled, rounded", color="black", fontname=helvetica] ;
edge [fontname=helvetica] ;
0 [label="Light <= 1.07\nentropy = 0.82\nsamples = 5488\nvalue = [6455, 2191]\nclass = Unoccupied", fillcolor="#eeac7c"] ;
1 [label="Light <= 0.33\nentropy = 0.03\nsamples = 4051\nvalue = [6348, 16]\nclass = Unoccupied", fillcolor="#e58139"] ;
0 -> 1 [labeldistance=2.5, labelangle=45, headlabel="True"] ;
2 [label="HumidityRatio <= 1.71\nentropy = 0.0\nsamples = 3922\nvalue = [6164, 1]\nclass = Unoccupied", fillcolor="#e58139"] ;
1 -> 2 ;
3 [label="entropy = 0.0\nsamples = 3861\nvalue = [6074, 0]\nclass = Unoccupied", fillcolor="#e58139"] ;
2 -> 3 ;
4 [label="Temperature <= 0.61\nentropy = 0.09\nsamples = 61\nvalue = [90, 1]\nclass = Unoccupied", fillcolor="#e5823b"] ;
2 -> 4 ;
5 [label="entropy = 0.0\nsamples = 39\nvalue = [61, 0]\nclass = Unoccupied", fillcolor="#e58139"] ;
4 -> 5 ;
6 [label="Light <= -0.51\nentropy = 0.21\nsamples = 22\nvalue = [29, 1]\nclass = Unoccupied", fillcolor="#e68540"] ;
4 -> 6 ;
7 [label="entropy = 0.0\nsamples = 20\nvalue = [27, 0]\nclass = Unoccupied", fillcolor="#e58139"] ;
6 -> 7 ;
8 [label="CO2 <= 1.94\nentropy = 0.92\nsamples = 2\nvalue = [2, 1]\nclass = Unoccupied", fillcolor="#f2c09c"] ;
6 -> 8 ;
9 [label="entropy = 0.0\nsamples = 1\nvalue = [2, 0]\nclass = Unoccupied", fillcolor="#e58139"] ;
8 -> 9 ;
10 [label="entropy = 0.0\nsamples = 1\nvalue = [0, 1]\nclass = Occupied", fillcolor="#399de5"] ;
8 -> 10 ;
11 [label="HumidityRatio <= -1.04\nentropy = 0.39\nsamples = 129\nvalue = [184, 15]\nclass = Unoccupied", fillcolor="#e78b49"] ;
1 -> 11 ;
12 [label="entropy = 0.0\nsamples = 102\nvalue = [154, 0]\nclass = Unoccupied", fillcolor="#e58139"] ;
11 -> 12 ;
13 [label="CO2 <= -0.63\nentropy = 0.92\nsamples = 27\nvalue = [30, 15]\nclass = Unoccupied", fillcolor="#f2c09c"] ;
11 -> 13 ;
14 [label="entropy = 0.0\nsamples = 16\nvalue = [27, 0]\nclass = Unoccupied", fillcolor="#e58139"] ;
13 -> 14 ;
15 [label="CO2 <= 0.76\nentropy = 0.65\nsamples = 11\nvalue = [3, 15]\nclass = Occupied", fillcolor="#61b1ea"] ;
13 -> 15 ;
16 [label="entropy = 0.0\nsamples = 7\nvalue = [0, 11]\nclass = Occupied", fillcolor="#399de5"] ;
15 -> 16 ;
17 [label="Temperature <= 2.03\nentropy = 0.99\nsamples = 4\nvalue = [3, 4]\nclass = Occupied", fillcolor="#cee6f8"] ;
15 -> 17 ;
18 [label="entropy = 0.0\nsamples = 3\nvalue = [0, 4]\nclass = Occupied", fillcolor="#399de5"] ;
17 -> 18 ;
19 [label="entropy = 0.0\nsamples = 1\nvalue = [3, 0]\nclass = Unoccupied", fillcolor="#e58139"] ;
17 -> 19 ;
20 [label="HumidityRatio <= 0.85\nentropy = 0.27\nsamples = 1437\nvalue = [107, 2175]\nclass = Occupied", fillcolor="#43a2e6"] ;
0 -> 20 [labeldistance=2.5, labelangle=-45, headlabel="False"] ;
21 [label="Light <= 1.37\nentropy = 0.39\nsamples = 870\nvalue = [107, 1286]\nclass = Occupied", fillcolor="#49a5e7"] ;
20 -> 21 ;
22 [label="hour <= 0.43\nentropy = 0.69\nsamples = 139\nvalue = [39, 173]\nclass = Occupied", fillcolor="#66b3eb"] ;
21 -> 22 ;
23 [label="HumidityRatio <= -1.45\nentropy = 0.55\nsamples = 118\nvalue = [24, 162]\nclass = Occupied", fillcolor="#56ace9"] ;
22 -> 23 ;
24 [label="entropy = 0.0\nsamples = 3\nvalue = [4, 0]\nclass = Unoccupied", fillcolor="#e58139"] ;
23 -> 24 ;
25 [label="CO2 <= -0.34\nentropy = 0.5\nsamples = 115\nvalue = [20, 162]\nclass = Occupied", fillcolor="#51a9e8"] ;
23 -> 25 ;
26 [label="HumidityRatio <= -0.94\nentropy = 0.84\nsamples = 42\nvalue = [17, 46]\nclass = Occupied", fillcolor="#82c1ef"] ;
25 -> 26 ;
27 [label="entropy = 0.0\nsamples = 12\nvalue = [0, 18]\nclass = Occupied", fillcolor="#399de5"] ;
26 -> 27 ;
28 [label="HumidityRatio <= -0.63\nentropy = 0.96\nsamples = 30\nvalue = [17, 28]\nclass = Occupied", fillcolor="#b1d8f5"] ;
26 -> 28 ;
29 [label="entropy = 0.0\nsamples = 4\nvalue = [8, 0]\nclass = Unoccupied", fillcolor="#e58139"] ;
28 -> 29 ;
30 [label="Temperature <= -0.14\nentropy = 0.8\nsamples = 26\nvalue = [9, 28]\nclass = Occupied", fillcolor="#79bced"] ;
28 -> 30 ;
31 [label="Temperature <= -0.24\nentropy = 0.92\nsamples = 20\nvalue = [9, 18]\nclass = Occupied", fillcolor="#9ccef2"] ;
30 -> 31 ;
32 [label="Light <= 1.23\nentropy = 0.47\nsamples = 16\nvalue = [2, 18]\nclass = Occupied", fillcolor="#4fa8e8"] ;
31 -> 32 ;
33 [label="Temperature <= -1.18\nentropy = 1.0\nsamples = 3\nvalue = [2, 2]\nclass = Unoccupied", fillcolor="#ffffff"] ;
32 -> 33 ;
34 [label="entropy = 0.0\nsamples = 1\nvalue = [2, 0]\nclass = Unoccupied", fillcolor="#e58139"] ;
33 -> 34 ;
35 [label="entropy = 0.0\nsamples = 2\nvalue = [0, 2]\nclass = Occupied", fillcolor="#399de5"] ;
33 -> 35 ;
36 [label="entropy = 0.0\nsamples = 13\nvalue = [0, 16]\nclass = Occupied", fillcolor="#399de5"] ;
32 -> 36 ;
37 [label="entropy = 0.0\nsamples = 4\nvalue = [7, 0]\nclass = Unoccupied", fillcolor="#e58139"] ;
31 -> 37 ;
38 [label="entropy = 0.0\nsamples = 6\nvalue = [0, 10]\nclass = Occupied", fillcolor="#399de5"] ;
30 -> 38 ;
39 [label="Temperature <= 0.42\nentropy = 0.17\nsamples = 73\nvalue = [3, 116]\nclass = Occupied", fillcolor="#3ea0e6"] ;
25 -> 39 ;
40 [label="entropy = 0.0\nsamples = 66\nvalue = [0, 102]\nclass = Occupied", fillcolor="#399de5"] ;
39 -> 40 ;
41 [label="CO2 <= 0.05\nentropy = 0.67\nsamples = 7\nvalue = [3, 14]\nclass = Occupied", fillcolor="#63b2eb"] ;
39 -> 41 ;
42 [label="entropy = 0.0\nsamples = 1\nvalue = [3, 0]\nclass = Unoccupied", fillcolor="#e58139"] ;
41 -> 42 ;
43 [label="entropy = 0.0\nsamples = 6\nvalue = [0, 14]\nclass = Occupied", fillcolor="#399de5"] ;
41 -> 43 ;
44 [label="Light <= 1.35\nentropy = 0.98\nsamples = 21\nvalue = [15, 11]\nclass = Unoccupied", fillcolor="#f8ddca"] ;
22 -> 44 ;
45 [label="Light <= 1.32\nentropy = 0.59\nsamples = 13\nvalue = [12, 2]\nclass = Unoccupied", fillcolor="#e9965a"] ;
44 -> 45 ;
46 [label="entropy = 0.0\nsamples = 1\nvalue = [0, 1]\nclass = Occupied", fillcolor="#399de5"] ;
45 -> 46 ;
47 [label="HumidityRatio <= 0.3\nentropy = 0.39\nsamples = 12\nvalue = [12, 1]\nclass = Unoccupied", fillcolor="#e78c49"] ;
45 -> 47 ;
48 [label="CO2 <= 0.46\nentropy = 1.0\nsamples = 2\nvalue = [1, 1]\nclass = Unoccupied", fillcolor="#ffffff"] ;
47 -> 48 ;
49 [label="entropy = 0.0\nsamples = 1\nvalue = [0, 1]\nclass = Occupied", fillcolor="#399de5"] ;
48 -> 49 ;
50 [label="entropy = 0.0\nsamples = 1\nvalue = [1, 0]\nclass = Unoccupied", fillcolor="#e58139"] ;
48 -> 50 ;
51 [label="entropy = 0.0\nsamples = 10\nvalue = [11, 0]\nclass = Unoccupied", fillcolor="#e58139"] ;
47 -> 51 ;
52 [label="HumidityRatio <= 0.43\nentropy = 0.81\nsamples = 8\nvalue = [3, 9]\nclass = Occupied", fillcolor="#7bbeee"] ;
44 -> 52 ;
53 [label="entropy = 0.0\nsamples = 4\nvalue = [0, 5]\nclass = Occupied", fillcolor="#399de5"] ;
52 -> 53 ;
54 [label="CO2 <= 0.7\nentropy = 0.99\nsamples = 4\nvalue = [3, 4]\nclass = Occupied", fillcolor="#cee6f8"] ;
52 -> 54 ;
55 [label="HumidityRatio <= 0.44\nentropy = 0.72\nsamples = 3\nvalue = [1, 4]\nclass = Occupied", fillcolor="#6ab6ec"] ;
54 -> 55 ;
56 [label="entropy = 0.0\nsamples = 1\nvalue = [1, 0]\nclass = Unoccupied", fillcolor="#e58139"] ;
55 -> 56 ;
57 [label="entropy = 0.0\nsamples = 2\nvalue = [0, 4]\nclass = Occupied", fillcolor="#399de5"] ;
55 -> 57 ;
58 [label="entropy = 0.0\nsamples = 1\nvalue = [2, 0]\nclass = Unoccupied", fillcolor="#e58139"] ;
54 -> 58 ;
59 [label="HumidityRatio <= 0.49\nentropy = 0.32\nsamples = 731\nvalue = [68, 1113]\nclass = Occupied", fillcolor="#45a3e7"] ;
21 -> 59 ;
60 [label="CO2 <= 0.46\nentropy = 0.14\nsamples = 449\nvalue = [14, 712]\nclass = Occupied", fillcolor="#3d9fe6"] ;
59 -> 60 ;
61 [label="HumidityRatio <= -0.03\nentropy = 0.34\nsamples = 133\nvalue = [13, 190]\nclass = Occupied", fillcolor="#47a4e7"] ;
60 -> 61 ;
62 [label="Light <= 1.99\nentropy = 0.22\nsamples = 113\nvalue = [6, 169]\nclass = Occupied", fillcolor="#40a0e6"] ;
61 -> 62 ;
63 [label="Temperature <= 0.68\nentropy = 0.09\nsamples = 107\nvalue = [2, 166]\nclass = Occupied", fillcolor="#3b9ee5"] ;
62 -> 63 ;
64 [label="entropy = 0.0\nsamples = 82\nvalue = [0, 129]\nclass = Occupied", fillcolor="#399de5"] ;
63 -> 64 ;
65 [label="Temperature <= 0.75\nentropy = 0.29\nsamples = 25\nvalue = [2, 37]\nclass = Occupied", fillcolor="#44a2e6"] ;
63 -> 65 ;
66 [label="entropy = 0.0\nsamples = 2\nvalue = [2, 0]\nclass = Unoccupied", fillcolor="#e58139"] ;
65 -> 66 ;
67 [label="entropy = 0.0\nsamples = 23\nvalue = [0, 37]\nclass = Occupied", fillcolor="#399de5"] ;
65 -> 67 ;
68 [label="hour <= 0.29\nentropy = 0.99\nsamples = 6\nvalue = [4, 3]\nclass = Unoccupied", fillcolor="#f8e0ce"] ;
62 -> 68 ;
69 [label="HumidityRatio <= -1.05\nentropy = 0.92\nsamples = 5\nvalue = [4, 2]\nclass = Unoccupied", fillcolor="#f2c09c"] ;
68 -> 69 ;
70 [label="HumidityRatio <= -1.19\nentropy = 0.92\nsamples = 3\nvalue = [1, 2]\nclass = Occupied", fillcolor="#9ccef2"] ;
69 -> 70 ;
71 [label="entropy = 0.0\nsamples = 1\nvalue = [1, 0]\nclass = Unoccupied", fillcolor="#e58139"] ;
70 -> 71 ;
72 [label="entropy = 0.0\nsamples = 2\nvalue = [0, 2]\nclass = Occupied", fillcolor="#399de5"] ;
70 -> 72 ;
73 [label="entropy = 0.0\nsamples = 2\nvalue = [3, 0]\nclass = Unoccupied", fillcolor="#e58139"] ;
69 -> 73 ;
74 [label="entropy = 0.0\nsamples = 1\nvalue = [0, 1]\nclass = Occupied", fillcolor="#399de5"] ;
68 -> 74 ;
75 [label="CO2 <= 0.27\nentropy = 0.81\nsamples = 20\nvalue = [7, 21]\nclass = Occupied", fillcolor="#7bbeee"] ;
61 -> 75 ;
76 [label="Light <= 1.45\nentropy = 0.72\nsamples = 4\nvalue = [4, 1]\nclass = Unoccupied", fillcolor="#eca06a"] ;
75 -> 76 ;
77 [label="HumidityRatio <= -0.01\nentropy = 0.92\nsamples = 3\nvalue = [2, 1]\nclass = Unoccupied", fillcolor="#f2c09c"] ;
76 -> 77 ;
78 [label="entropy = 0.0\nsamples = 1\nvalue = [1, 0]\nclass = Unoccupied", fillcolor="#e58139"] ;
77 -> 78 ;
79 [label="HumidityRatio <= -0.01\nentropy = 1.0\nsamples = 2\nvalue = [1, 1]\nclass = Unoccupied", fillcolor="#ffffff"] ;
77 -> 79 ;
80 [label="entropy = 0.0\nsamples = 1\nvalue = [0, 1]\nclass = Occupied", fillcolor="#399de5"] ;
79 -> 80 ;
81 [label="entropy = 0.0\nsamples = 1\nvalue = [1, 0]\nclass = Unoccupied", fillcolor="#e58139"] ;
79 -> 81 ;
82 [label="entropy = 0.0\nsamples = 1\nvalue = [2, 0]\nclass = Unoccupied", fillcolor="#e58139"] ;
76 -> 82 ;
83 [label="CO2 <= 0.43\nentropy = 0.56\nsamples = 16\nvalue = [3, 20]\nclass = Occupied", fillcolor="#57ace9"] ;
75 -> 83 ;
84 [label="Light <= 1.46\nentropy = 0.3\nsamples = 13\nvalue = [1, 18]\nclass = Occupied", fillcolor="#44a2e6"] ;
83 -> 84 ;
85 [label="Temperature <= 0.26\nentropy = 0.92\nsamples = 2\nvalue = [1, 2]\nclass = Occupied", fillcolor="#9ccef2"] ;
84 -> 85 ;
86 [label="entropy = 0.0\nsamples = 1\nvalue = [1, 0]\nclass = Unoccupied", fillcolor="#e58139"] ;
85 -> 86 ;
87 [label="entropy = 0.0\nsamples = 1\nvalue = [0, 2]\nclass = Occupied", fillcolor="#399de5"] ;
85 -> 87 ;
88 [label="entropy = 0.0\nsamples = 11\nvalue = [0, 16]\nclass = Occupied", fillcolor="#399de5"] ;
84 -> 88 ;
89 [label="Light <= 1.55\nentropy = 1.0\nsamples = 3\nvalue = [2, 2]\nclass = Unoccupied", fillcolor="#ffffff"] ;
83 -> 89 ;
90 [label="entropy = 0.0\nsamples = 2\nvalue = [2, 0]\nclass = Unoccupied", fillcolor="#e58139"] ;
89 -> 90 ;
91 [label="entropy = 0.0\nsamples = 1\nvalue = [0, 2]\nclass = Occupied", fillcolor="#399de5"] ;
89 -> 91 ;
92 [label="Light <= 1.61\nentropy = 0.02\nsamples = 316\nvalue = [1, 522]\nclass = Occupied", fillcolor="#399de5"] ;
60 -> 92 ;
93 [label="entropy = 0.0\nsamples = 209\nvalue = [0, 338]\nclass = Occupied", fillcolor="#399de5"] ;
92 -> 93 ;
94 [label="CO2 <= 0.57\nentropy = 0.05\nsamples = 107\nvalue = [1, 184]\nclass = Occupied", fillcolor="#3a9ee5"] ;
92 -> 94 ;
95 [label="HumidityRatio <= -0.77\nentropy = 0.14\nsamples = 30\nvalue = [1, 48]\nclass = Occupied", fillcolor="#3d9fe6"] ;
94 -> 95 ;
96 [label="entropy = 0.0\nsamples = 21\nvalue = [0, 36]\nclass = Occupied", fillcolor="#399de5"] ;
95 -> 96 ;
97 [label="Light <= 1.62\nentropy = 0.39\nsamples = 9\nvalue = [1, 12]\nclass = Occupied", fillcolor="#49a5e7"] ;
95 -> 97 ;
98 [label="CO2 <= 0.57\nentropy = 0.92\nsamples = 2\nvalue = [1, 2]\nclass = Occupied", fillcolor="#9ccef2"] ;
97 -> 98 ;
99 [label="entropy = 0.0\nsamples = 1\nvalue = [0, 2]\nclass = Occupied", fillcolor="#399de5"] ;
98 -> 99 ;
100 [label="entropy = 0.0\nsamples = 1\nvalue = [1, 0]\nclass = Unoccupied", fillcolor="#e58139"] ;
98 -> 100 ;
101 [label="entropy = 0.0\nsamples = 7\nvalue = [0, 10]\nclass = Occupied", fillcolor="#399de5"] ;
97 -> 101 ;
102 [label="entropy = 0.0\nsamples = 77\nvalue = [0, 136]\nclass = Occupied", fillcolor="#399de5"] ;
94 -> 102 ;
103 [label="Light <= 1.47\nentropy = 0.53\nsamples = 282\nvalue = [54, 401]\nclass = Occupied", fillcolor="#54aae9"] ;
59 -> 103 ;
104 [label="entropy = 0.0\nsamples = 75\nvalue = [0, 127]\nclass = Occupied", fillcolor="#399de5"] ;
103 -> 104 ;
105 [label="hour <= 0.01\nentropy = 0.65\nsamples = 207\nvalue = [54, 274]\nclass = Occupied", fillcolor="#60b0ea"] ;
103 -> 105 ;
106 [label="Light <= 1.51\nentropy = 0.27\nsamples = 93\nvalue = [7, 141]\nclass = Occupied", fillcolor="#43a2e6"] ;
105 -> 106 ;
107 [label="entropy = 0.0\nsamples = 29\nvalue = [0, 43]\nclass = Occupied", fillcolor="#399de5"] ;
106 -> 107 ;
108 [label="Temperature <= 1.18\nentropy = 0.35\nsamples = 64\nvalue = [7, 98]\nclass = Occupied", fillcolor="#47a4e7"] ;
106 -> 108 ;
109 [label="entropy = 0.0\nsamples = 21\nvalue = [0, 36]\nclass = Occupied", fillcolor="#399de5"] ;
108 -> 109 ;
110 [label="Light <= 1.52\nentropy = 0.47\nsamples = 43\nvalue = [7, 62]\nclass = Occupied", fillcolor="#4fa8e8"] ;
108 -> 110 ;
111 [label="CO2 <= 1.25\nentropy = 0.86\nsamples = 2\nvalue = [5, 2]\nclass = Unoccupied", fillcolor="#efb388"] ;
110 -> 111 ;
112 [label="entropy = 0.0\nsamples = 1\nvalue = [0, 2]\nclass = Occupied", fillcolor="#399de5"] ;
111 -> 112 ;
113 [label="entropy = 0.0\nsamples = 1\nvalue = [5, 0]\nclass = Unoccupied", fillcolor="#e58139"] ;
111 -> 113 ;
114 [label="Light <= 1.72\nentropy = 0.21\nsamples = 41\nvalue = [2, 60]\nclass = Occupied", fillcolor="#40a0e6"] ;
110 -> 114 ;
115 [label="entropy = 0.0\nsamples = 13\nvalue = [0, 26]\nclass = Occupied", fillcolor="#399de5"] ;
114 -> 115 ;
116 [label="Light <= 1.88\nentropy = 0.31\nsamples = 28\nvalue = [2, 34]\nclass = Occupied", fillcolor="#45a3e7"] ;
114 -> 116 ;
117 [label="entropy = 0.0\nsamples = 1\nvalue = [1, 0]\nclass = Unoccupied", fillcolor="#e58139"] ;
116 -> 117 ;
118 [label="Temperature <= 1.32\nentropy = 0.19\nsamples = 27\nvalue = [1, 34]\nclass = Occupied", fillcolor="#3fa0e6"] ;
116 -> 118 ;
119 [label="hour <= -0.2\nentropy = 0.41\nsamples = 9\nvalue = [1, 11]\nclass = Occupied", fillcolor="#4ba6e7"] ;
118 -> 119 ;
120 [label="entropy = 0.0\nsamples = 1\nvalue = [1, 0]\nclass = Unoccupied", fillcolor="#e58139"] ;
119 -> 120 ;
121 [label="entropy = 0.0\nsamples = 8\nvalue = [0, 11]\nclass = Occupied", fillcolor="#399de5"] ;
119 -> 121 ;
122 [label="entropy = 0.0\nsamples = 18\nvalue = [0, 23]\nclass = Occupied", fillcolor="#399de5"] ;
118 -> 122 ;
123 [label="Light <= 2.21\nentropy = 0.83\nsamples = 114\nvalue = [47, 133]\nclass = Occupied", fillcolor="#7fc0ee"] ;
105 -> 123 ;
124 [label="hour <= 0.43\nentropy = 0.95\nsamples = 80\nvalue = [47, 82]\nclass = Occupied", fillcolor="#aad5f4"] ;
123 -> 124 ;
125 [label="HumidityRatio <= 0.65\nentropy = 0.99\nsamples = 67\nvalue = [47, 59]\nclass = Occupied", fillcolor="#d7ebfa"] ;
124 -> 125 ;
126 [label="Light <= 1.5\nentropy = 0.29\nsamples = 18\nvalue = [19, 1]\nclass = Unoccupied", fillcolor="#e68843"] ;
125 -> 126 ;
127 [label="hour <= 0.29\nentropy = 0.72\nsamples = 5\nvalue = [4, 1]\nclass = Unoccupied", fillcolor="#eca06a"] ;
126 -> 127 ;
128 [label="entropy = 0.0\nsamples = 1\nvalue = [0, 1]\nclass = Occupied", fillcolor="#399de5"] ;
127 -> 128 ;
129 [label="entropy = 0.0\nsamples = 4\nvalue = [4, 0]\nclass = Unoccupied", fillcolor="#e58139"] ;
127 -> 129 ;
130 [label="entropy = 0.0\nsamples = 13\nvalue = [15, 0]\nclass = Unoccupied", fillcolor="#e58139"] ;
126 -> 130 ;
131 [label="HumidityRatio <= 0.73\nentropy = 0.91\nsamples = 49\nvalue = [28, 58]\nclass = Occupied", fillcolor="#99ccf2"] ;
125 -> 131 ;
132 [label="entropy = 0.0\nsamples = 9\nvalue = [0, 14]\nclass = Occupied", fillcolor="#399de5"] ;
131 -> 132 ;
133 [label="Temperature <= 2.05\nentropy = 0.96\nsamples = 40\nvalue = [28, 44]\nclass = Occupied", fillcolor="#b7dbf6"] ;
131 -> 133 ;
134 [label="Temperature <= 1.69\nentropy = 1.0\nsamples = 29\nvalue = [28, 27]\nclass = Unoccupied", fillcolor="#fefaf8"] ;
133 -> 134 ;
135 [label="CO2 <= 1.37\nentropy = 0.66\nsamples = 16\nvalue = [5, 24]\nclass = Occupied", fillcolor="#62b1ea"] ;
134 -> 135 ;
136 [label="CO2 <= 1.37\nentropy = 0.9\nsamples = 7\nvalue = [5, 11]\nclass = Occupied", fillcolor="#93caf1"] ;
135 -> 136 ;
137 [label="Temperature <= 1.44\nentropy = 0.41\nsamples = 6\nvalue = [1, 11]\nclass = Occupied", fillcolor="#4ba6e7"] ;
136 -> 137 ;
138 [label="entropy = 0.0\nsamples = 3\nvalue = [0, 8]\nclass = Occupied", fillcolor="#399de5"] ;
137 -> 138 ;
139 [label="HumidityRatio <= 0.78\nentropy = 0.81\nsamples = 3\nvalue = [1, 3]\nclass = Occupied", fillcolor="#7bbeee"] ;
137 -> 139 ;
140 [label="entropy = 0.0\nsamples = 2\nvalue = [0, 3]\nclass = Occupied", fillcolor="#399de5"] ;
139 -> 140 ;
141 [label="entropy = 0.0\nsamples = 1\nvalue = [1, 0]\nclass = Unoccupied", fillcolor="#e58139"] ;
139 -> 141 ;
142 [label="entropy = 0.0\nsamples = 1\nvalue = [4, 0]\nclass = Unoccupied", fillcolor="#e58139"] ;
136 -> 142 ;
143 [label="entropy = 0.0\nsamples = 9\nvalue = [0, 13]\nclass = Occupied", fillcolor="#399de5"] ;
135 -> 143 ;
144 [label="CO2 <= 1.51\nentropy = 0.52\nsamples = 13\nvalue = [23, 3]\nclass = Unoccupied", fillcolor="#e89153"] ;
134 -> 144 ;
145 [label="entropy = 0.0\nsamples = 11\nvalue = [23, 0]\nclass = Unoccupied", fillcolor="#e58139"] ;
144 -> 145 ;
146 [label="entropy = 0.0\nsamples = 2\nvalue = [0, 3]\nclass = Occupied", fillcolor="#399de5"] ;
144 -> 146 ;
147 [label="entropy = 0.0\nsamples = 11\nvalue = [0, 17]\nclass = Occupied", fillcolor="#399de5"] ;
133 -> 147 ;
148 [label="entropy = 0.0\nsamples = 13\nvalue = [0, 23]\nclass = Occupied", fillcolor="#399de5"] ;
124 -> 148 ;
149 [label="entropy = 0.0\nsamples = 34\nvalue = [0, 51]\nclass = Occupied", fillcolor="#399de5"] ;
123 -> 149 ;
150 [label="entropy = 0.0\nsamples = 567\nvalue = [0, 889]\nclass = Occupied", fillcolor="#399de5"] ;
20 -> 150 ;
}